<?xml version="1.0"?>
<opencv_storage>
<stage10>
  <maxWeakCount>5</maxWeakCount>
  <stageThreshold>-7.5997227430343628e-01</stageThreshold>
  <weakClassifiers>
    <_>
      <internalNodes>
        0 -1 1527599 -2.4225625675171614e-03</internalNodes>
      <leafValues>
        5.8108109235763550e-01 -4.8847925662994385e-01</leafValues></_>
    <_>
      <internalNodes>
        0 -1 9978 1.4224601909518242e-04</internalNodes>
      <leafValues>
        1.8382488191127777e-01 -7.6165622472763062e-01</leafValues></_>
    <_>
      <internalNodes>
        0 -1 2901261 5.6309359933948144e-05</internalNodes>
      <leafValues>
        -5.4494160413742065e-01 2.8399494290351868e-01</leafValues></_>
    <_>
      <internalNodes>
        0 -1 1517767 2.1314699202775955e-02</internalNodes>
      <leafValues>
        1.6788111627101898e-01 -9.7892719507217407e-01</leafValues></_>
    <_>
      <internalNodes>
        0 -1 1327511 -2.2159166634082794e-02</internalNodes>
      <leafValues>
        -9.0719395875930786e-01 1.5289047360420227e-01</leafValues></_></weakClassifiers></stage10>
</opencv_storage>
