<?xml version="1.0"?>
<opencv_storage>
<stage12>
  <maxWeakCount>6</maxWeakCount>
  <stageThreshold>-7.7510142326354980e-01</stageThreshold>
  <weakClassifiers>
    <_>
      <internalNodes>
        0 -1 2650287 -3.5743706393986940e-03</internalNodes>
      <leafValues>
        6.0810810327529907e-01 -4.9155145883560181e-01</leafValues></_>
    <_>
      <internalNodes>
        0 -1 756218 -1.6290347557514906e-03</internalNodes>
      <leafValues>
        1.9472490251064301e-01 -6.5573829412460327e-01</leafValues></_>
    <_>
      <internalNodes>
        0 -1 119563 9.0992572950199246e-05</internalNodes>
      <leafValues>
        -5.1021081209182739e-01 2.6070970296859741e-01</leafValues></_>
    <_>
      <internalNodes>
        0 -1 3023748 6.2004581559449434e-04</internalNodes>
      <leafValues>
        1.9197316467761993e-01 -8.9291596412658691e-01</leafValues></_>
    <_>
      <internalNodes>
        0 -1 3020652 -1.1456996202468872e-02</internalNodes>
      <leafValues>
        6.2689125537872314e-01 -2.8956907987594604e-01</leafValues></_>
    <_>
      <internalNodes>
        0 -1 2203403 -1.0509417916182429e-04</internalNodes>
      <leafValues>
        2.5228393077850342e-01 -6.4138865470886230e-01</leafValues></_></weakClassifiers></stage12>
</opencv_storage>
