<?xml version="1.0"?>
<opencv_storage>
<stage9>
  <maxWeakCount>5</maxWeakCount>
  <stageThreshold>-9.0288221836090088e-01</stageThreshold>
  <weakClassifiers>
    <_>
      <internalNodes>
        0 -1 240587 -5.4215215146541595e-02</internalNodes>
      <leafValues>
        -7.3291927576065063e-02 -7.6124030351638794e-01</leafValues></_>
    <_>
      <internalNodes>
        0 -1 119721 -3.4580868668854237e-04</internalNodes>
      <leafValues>
        -8.6664402484893799e-01 1.0973405838012695e-01</leafValues></_>
    <_>
      <internalNodes>
        0 -1 2055665 7.6007156167179346e-04</internalNodes>
      <leafValues>
        -4.8695597052574158e-01 3.2269573211669922e-01</leafValues></_>
    <_>
      <internalNodes>
        0 -1 2464633 -6.7605534568428993e-03</internalNodes>
      <leafValues>
        -9.0200972557067871e-01 1.5470184385776520e-01</leafValues></_>
    <_>
      <internalNodes>
        0 -1 2979524 3.4343061270192266e-04</internalNodes>
      <leafValues>
        -4.0207031369209290e-01 3.6930781602859497e-01</leafValues></_></weakClassifiers></stage9>
</opencv_storage>
