<?xml version="1.0"?>
<opencv_storage>
<stage17>
  <maxWeakCount>7</maxWeakCount>
  <stageThreshold>-1.0743159055709839e+00</stageThreshold>
  <weakClassifiers>
    <_>
      <internalNodes>
        0 -1 298308 -1.8711427692323923e-03</internalNodes>
      <leafValues>
        -5.2160952240228653e-02 -6.6110396385192871e-01</leafValues></_>
    <_>
      <internalNodes>
        0 -1 1701947 1.3833708362653852e-04</internalNodes>
      <leafValues>
        -5.8997273445129395e-01 1.8121051788330078e-01</leafValues></_>
    <_>
      <internalNodes>
        0 -1 3003965 1.6648668679408729e-04</internalNodes>
      <leafValues>
        -3.3273392915725708e-01 4.0672814846038818e-01</leafValues></_>
    <_>
      <internalNodes>
        0 -1 3024129 1.4860646333545446e-03</internalNodes>
      <leafValues>
        -2.2280500829219818e-01 5.0005769729614258e-01</leafValues></_>
    <_>
      <internalNodes>
        0 -1 785592 -9.2902904725633562e-05</internalNodes>
      <leafValues>
        3.9798837900161743e-01 -3.5462614893913269e-01</leafValues></_>
    <_>
      <internalNodes>
        0 -1 3023744 -4.0050322422757745e-04</internalNodes>
      <leafValues>
        -7.9590505361557007e-01 1.8250282108783722e-01</leafValues></_>
    <_>
      <internalNodes>
        0 -1 2981823 -5.3658663091482595e-05</internalNodes>
      <leafValues>
        3.7144926190376282e-01 -3.8042885065078735e-01</leafValues></_></weakClassifiers></stage17>
</opencv_storage>
