<?xml version="1.0"?>
<opencv_storage>
<cascade>
  <stageType>BOOST</stageType>
  <featureType>HAAR</featureType>
  <height>50</height>
  <width>50</width>
  <stageParams>
    <boostType>GAB</boostType>
    <minHitRate>9.9500000476837158e-01</minHitRate>
    <maxFalseAlarm>5.0000000000000000e-01</maxFalseAlarm>
    <weightTrimRate>9.4999999999999996e-01</weightTrimRate>
    <maxDepth>1</maxDepth>
    <maxWeakCount>100</maxWeakCount></stageParams>
  <featureParams>
    <maxCatCount>0</maxCatCount>
    <featSize>1</featSize>
    <mode>BASIC</mode></featureParams>
  <stageNum>17</stageNum>
  <stages>
    <!-- stage 0 -->
    <_>
      <maxWeakCount>3</maxWeakCount>
      <stageThreshold>-1.3415023088455200e+00</stageThreshold>
      <weakClassifiers>
        <_>
          <internalNodes>
            0 -1 15 5.0340197980403900e-02</internalNodes>
          <leafValues>
            -9.3333333730697632e-01 7.0612245798110962e-01</leafValues></_>
        <_>
          <internalNodes>
            0 -1 63 3.8839303888380527e-03</internalNodes>
          <leafValues>
            -9.2690604925155640e-01 5.0853139162063599e-01</leafValues></_>
        <_>
          <internalNodes>
            0 -1 25 4.3844766914844513e-03</internalNodes>
          <leafValues>
            -9.1670042276382446e-01 5.9690016508102417e-01</leafValues></_></weakClassifiers></_>
    <!-- stage 1 -->
    <_>
      <maxWeakCount>2</maxWeakCount>
      <stageThreshold>-4.8446315526962280e-01</stageThreshold>
      <weakClassifiers>
        <_>
          <internalNodes>
            0 -1 49 4.1441738605499268e-02</internalNodes>
          <leafValues>
            -8.7191009521484375e-01 4.0357142686843872e-01</leafValues></_>
        <_>
          <internalNodes>
            0 -1 16 5.7177236303687096e-03</internalNodes>
          <leafValues>
            -8.8803458213806152e-01 4.0642985701560974e-01</leafValues></_></weakClassifiers></_>
    <!-- stage 2 -->
    <_>
      <maxWeakCount>2</maxWeakCount>
      <stageThreshold>-4.2564016580581665e-01</stageThreshold>
      <weakClassifiers>
        <_>
          <internalNodes>
            0 -1 34 -8.6299329996109009e-02</internalNodes>
          <leafValues>
            4.7785547375679016e-01 -7.3947107791900635e-01</leafValues></_>
        <_>
          <internalNodes>
            0 -1 29 5.1188189536333084e-03</internalNodes>
          <leafValues>
            -1. 3.1383094191551208e-01</leafValues></_></weakClassifiers></_>
    <!-- stage 3 -->
    <_>
      <maxWeakCount>3</maxWeakCount>
      <stageThreshold>-3.9844140410423279e-01</stageThreshold>
      <weakClassifiers>
        <_>
          <internalNodes>
            0 -1 30 3.6951918154954910e-03</internalNodes>
          <leafValues>
            2.0821918547153473e-01 -9.7500002384185791e-01</leafValues></_>
        <_>
          <internalNodes>
            0 -1 32 -5.3257264196872711e-02</internalNodes>
          <leafValues>
            2.8541594743728638e-01 -8.3198827505111694e-01</leafValues></_>
        <_>
          <internalNodes>
            0 -1 27 1.4983582077547908e-03</internalNodes>
          <leafValues>
            -8.9207655191421509e-01 3.4074702858924866e-01</leafValues></_></weakClassifiers></_>
    <!-- stage 4 -->
    <_>
      <maxWeakCount>4</maxWeakCount>
      <stageThreshold>-8.9143002033233643e-01</stageThreshold>
      <weakClassifiers>
        <_>
          <internalNodes>
            0 -1 28 -2.3464143276214600e-02</internalNodes>
          <leafValues>
            2.1928460896015167e-01 -8.5625773668289185e-01</leafValues></_>
        <_>
          <internalNodes>
            0 -1 53 6.2411492690443993e-03</internalNodes>
          <leafValues>
            -9.3065339326858521e-01 2.7187484502792358e-01</leafValues></_>
        <_>
          <internalNodes>
            0 -1 13 -4.4413613068172708e-05</internalNodes>
          <leafValues>
            5.4775494337081909e-01 -5.6308364868164063e-01</leafValues></_>
        <_>
          <internalNodes>
            0 -1 58 8.3850325609091669e-05</internalNodes>
          <leafValues>
            -8.0321347713470459e-01 3.8302245736122131e-01</leafValues></_></weakClassifiers></_>
    <!-- stage 5 -->
    <_>
      <maxWeakCount>3</maxWeakCount>
      <stageThreshold>-7.0348477363586426e-01</stageThreshold>
      <weakClassifiers>
        <_>
          <internalNodes>
            0 -1 35 -1.1388498358428478e-02</internalNodes>
          <leafValues>
            6.5948858857154846e-02 -8.4724187850952148e-01</leafValues></_>
        <_>
          <internalNodes>
            0 -1 51 -6.9788470864295959e-03</internalNodes>
          <leafValues>
            2.2431342303752899e-01 -8.4860914945602417e-01</leafValues></_>
        <_>
          <internalNodes>
            0 -1 60 -5.6123040849342942e-04</internalNodes>
          <leafValues>
            -9.9374705553054810e-01 2.1641460061073303e-01</leafValues></_></weakClassifiers></_>
    <!-- stage 6 -->
    <_>
      <maxWeakCount>5</maxWeakCount>
      <stageThreshold>-1.5953018665313721e+00</stageThreshold>
      <weakClassifiers>
        <_>
          <internalNodes>
            0 -1 68 2.8206263668835163e-03</internalNodes>
          <leafValues>
            -6.0069143772125244e-01 4.9488055706024170e-01</leafValues></_>
        <_>
          <internalNodes>
            0 -1 23 5.0440104678273201e-04</internalNodes>
          <leafValues>
            2.6702168583869934e-01 -8.7542700767517090e-01</leafValues></_>
        <_>
          <internalNodes>
            0 -1 38 -4.0182494558393955e-03</internalNodes>
          <leafValues>
            2.1765172481536865e-01 -9.4469118118286133e-01</leafValues></_>
        <_>
          <internalNodes>
            0 -1 41 1.0852386476472020e-03</internalNodes>
          <leafValues>
            -9.0228784084320068e-01 3.1884130835533142e-01</leafValues></_>
        <_>
          <internalNodes>
            0 -1 2 -2.3453146219253540e-02</internalNodes>
          <leafValues>
            3.8530272245407104e-01 -6.5567648410797119e-01</leafValues></_></weakClassifiers></_>
    <!-- stage 7 -->
    <_>
      <maxWeakCount>4</maxWeakCount>
      <stageThreshold>-1.0103287696838379e+00</stageThreshold>
      <weakClassifiers>
        <_>
          <internalNodes>
            0 -1 1 -6.1278376728296280e-02</internalNodes>
          <leafValues>
            1.8421052396297455e-01 -7.0588237047195435e-01</leafValues></_>
        <_>
          <internalNodes>
            0 -1 52 -1.3498908840119839e-02</internalNodes>
          <leafValues>
            3.9384421706199646e-01 -5.6526958942413330e-01</leafValues></_>
        <_>
          <internalNodes>
            0 -1 45 5.9905671514570713e-04</internalNodes>
          <leafValues>
            2.4700458347797394e-01 -9.5522671937942505e-01</leafValues></_>
        <_>
          <internalNodes>
            0 -1 44 -2.2314544767141342e-03</internalNodes>
          <leafValues>
            2.5693604350090027e-01 -9.3148636817932129e-01</leafValues></_></weakClassifiers></_>
    <!-- stage 8 -->
    <_>
      <maxWeakCount>5</maxWeakCount>
      <stageThreshold>-1.3056355714797974e+00</stageThreshold>
      <weakClassifiers>
        <_>
          <internalNodes>
            0 -1 8 -4.9801424145698547e-02</internalNodes>
          <leafValues>
            3.0701753497123718e-01 -6.9416499137878418e-01</leafValues></_>
        <_>
          <internalNodes>
            0 -1 65 -1.0122968815267086e-03</internalNodes>
          <leafValues>
            2.3524838685989380e-01 -7.8828179836273193e-01</leafValues></_>
        <_>
          <internalNodes>
            0 -1 21 -4.1097521781921387e-02</internalNodes>
          <leafValues>
            4.9402776360511780e-01 -4.7454488277435303e-01</leafValues></_>
        <_>
          <internalNodes>
            0 -1 40 3.4029904054477811e-04</internalNodes>
          <leafValues>
            -6.0813003778457642e-01 3.8865658640861511e-01</leafValues></_>
        <_>
          <internalNodes>
            0 -1 17 -1.7022977117449045e-03</internalNodes>
          <leafValues>
            -9.1037309169769287e-01 2.5830361247062683e-01</leafValues></_></weakClassifiers></_>
    <!-- stage 9 -->
    <_>
      <maxWeakCount>4</maxWeakCount>
      <stageThreshold>-6.7797535657882690e-01</stageThreshold>
      <weakClassifiers>
        <_>
          <internalNodes>
            0 -1 26 4.8338487977162004e-04</internalNodes>
          <leafValues>
            -1.1065989732742310e-01 -9.4838708639144897e-01</leafValues></_>
        <_>
          <internalNodes>
            0 -1 55 -4.3276668293401599e-04</internalNodes>
          <leafValues>
            -9.2320418357849121e-01 1.1494307219982147e-01</leafValues></_>
        <_>
          <internalNodes>
            0 -1 20 1.8845734884962440e-03</internalNodes>
          <leafValues>
            -7.3258411884307861e-01 2.8368064761161804e-01</leafValues></_>
        <_>
          <internalNodes>
            0 -1 31 -4.8533612862229347e-03</internalNodes>
          <leafValues>
            -9.6593916416168213e-01 1.8947017192840576e-01</leafValues></_></weakClassifiers></_>
    <!-- stage 10 -->
    <_>
      <maxWeakCount>6</maxWeakCount>
      <stageThreshold>-1.2037676572799683e+00</stageThreshold>
      <weakClassifiers>
        <_>
          <internalNodes>
            0 -1 4 -1.4808690175414085e-03</internalNodes>
          <leafValues>
            2.5814536213874817e-01 -6.2131303548812866e-01</leafValues></_>
        <_>
          <internalNodes>
            0 -1 48 -5.6622270494699478e-04</internalNodes>
          <leafValues>
            2.7885967493057251e-01 -6.8348616361618042e-01</leafValues></_>
        <_>
          <internalNodes>
            0 -1 24 -2.4228710681200027e-03</internalNodes>
          <leafValues>
            2.8446704149246216e-01 -7.8552329540252686e-01</leafValues></_>
        <_>
          <internalNodes>
            0 -1 42 2.9246625490486622e-04</internalNodes>
          <leafValues>
            -7.8886812925338745e-01 2.8741586208343506e-01</leafValues></_>
        <_>
          <internalNodes>
            0 -1 0 -5.7968959212303162e-02</internalNodes>
          <leafValues>
            4.1915977001190186e-01 -5.5663734674453735e-01</leafValues></_>
        <_>
          <internalNodes>
            0 -1 50 -2.3653332027606666e-04</internalNodes>
          <leafValues>
            -9.2967915534973145e-01 1.9972415268421173e-01</leafValues></_></weakClassifiers></_>
    <!-- stage 11 -->
    <_>
      <maxWeakCount>5</maxWeakCount>
      <stageThreshold>-9.0029513835906982e-01</stageThreshold>
      <weakClassifiers>
        <_>
          <internalNodes>
            0 -1 33 -9.1856755316257477e-03</internalNodes>
          <leafValues>
            2.4242424964904785e-01 -6.1290323734283447e-01</leafValues></_>
        <_>
          <internalNodes>
            0 -1 66 4.6609668061137199e-03</internalNodes>
          <leafValues>
            1.9884423911571503e-01 -8.4183138608932495e-01</leafValues></_>
        <_>
          <internalNodes>
            0 -1 57 -1.9014364806935191e-04</internalNodes>
          <leafValues>
            2.2523260116577148e-01 -7.5965195894241333e-01</leafValues></_>
        <_>
          <internalNodes>
            0 -1 3 2.4745163321495056e-01</internalNodes>
          <leafValues>
            2.0427112281322479e-01 -9.2229568958282471e-01</leafValues></_>
        <_>
          <internalNodes>
            0 -1 10 -3.0031118076294661e-03</internalNodes>
          <leafValues>
            2.1082691848278046e-01 -9.1468983888626099e-01</leafValues></_></weakClassifiers></_>
    <!-- stage 12 -->
    <_>
      <maxWeakCount>5</maxWeakCount>
      <stageThreshold>-8.7646561861038208e-01</stageThreshold>
      <weakClassifiers>
        <_>
          <internalNodes>
            0 -1 69 2.3943586274981499e-03</internalNodes>
          <leafValues>
            -5.9343665838241577e-01 2.8611898422241211e-01</leafValues></_>
        <_>
          <internalNodes>
            0 -1 64 2.0933025516569614e-03</internalNodes>
          <leafValues>
            -8.3946555852890015e-01 2.0263800024986267e-01</leafValues></_>
        <_>
          <internalNodes>
            0 -1 43 2.0597153343260288e-03</internalNodes>
          <leafValues>
            1.9291324913501740e-01 -8.6630904674530029e-01</leafValues></_>
        <_>
          <internalNodes>
            0 -1 47 -1.8302601529285312e-03</internalNodes>
          <leafValues>
            -8.9866256713867188e-01 1.9116507470607758e-01</leafValues></_>
        <_>
          <internalNodes>
            0 -1 36 5.4113181249704212e-05</internalNodes>
          <leafValues>
            -8.3015388250350952e-01 2.2008235752582550e-01</leafValues></_></weakClassifiers></_>
    <!-- stage 13 -->
    <_>
      <maxWeakCount>4</maxWeakCount>
      <stageThreshold>-1.0930250883102417e+00</stageThreshold>
      <weakClassifiers>
        <_>
          <internalNodes>
            0 -1 70 2.0251725800335407e-03</internalNodes>
          <leafValues>
            -6.1029410362243652e-01 3.1491711735725403e-01</leafValues></_>
        <_>
          <internalNodes>
            0 -1 39 2.2350288927555084e-03</internalNodes>
          <leafValues>
            1.3496409356594086e-01 -9.7667205333709717e-01</leafValues></_>
        <_>
          <internalNodes>
            0 -1 18 9.5950793474912643e-03</internalNodes>
          <leafValues>
            1.3540108501911163e-01 -9.5847737789154053e-01</leafValues></_>
        <_>
          <internalNodes>
            0 -1 61 -2.7191168555873446e-05</internalNodes>
          <leafValues>
            -7.5309610366821289e-01 2.0600447058677673e-01</leafValues></_></weakClassifiers></_>
    <!-- stage 14 -->
    <_>
      <maxWeakCount>6</maxWeakCount>
      <stageThreshold>-8.2958269119262695e-01</stageThreshold>
      <weakClassifiers>
        <_>
          <internalNodes>
            0 -1 9 -2.9962058761157095e-04</internalNodes>
          <leafValues>
            5.0000000000000000e-01 -5.4337149858474731e-01</leafValues></_>
        <_>
          <internalNodes>
            0 -1 37 7.1767892222851515e-04</internalNodes>
          <leafValues>
            -9.1904628276824951e-01 1.8789218366146088e-01</leafValues></_>
        <_>
          <internalNodes>
            0 -1 54 -4.1176602826453745e-04</internalNodes>
          <leafValues>
            -9.4986486434936523e-01 1.4971147477626801e-01</leafValues></_>
        <_>
          <internalNodes>
            0 -1 12 -5.8541445469018072e-05</internalNodes>
          <leafValues>
            4.6893775463104248e-01 -4.0273946523666382e-01</leafValues></_>
        <_>
          <internalNodes>
            0 -1 46 2.5950203416869044e-04</internalNodes>
          <leafValues>
            -6.7502254247665405e-01 3.1142187118530273e-01</leafValues></_>
        <_>
          <internalNodes>
            0 -1 6 -1.7172002117149532e-04</internalNodes>
          <leafValues>
            6.8920844793319702e-01 -3.1611007452011108e-01</leafValues></_></weakClassifiers></_>
    <!-- stage 15 -->
    <_>
      <maxWeakCount>5</maxWeakCount>
      <stageThreshold>-1.3727612495422363e+00</stageThreshold>
      <weakClassifiers>
        <_>
          <internalNodes>
            0 -1 5 -1.8008716870099306e-03</internalNodes>
          <leafValues>
            2.3711340129375458e-01 -6.0451978445053101e-01</leafValues></_>
        <_>
          <internalNodes>
            0 -1 56 4.6901655150577426e-04</internalNodes>
          <leafValues>
            1.5523564815521240e-01 -1.</leafValues></_>
        <_>
          <internalNodes>
            0 -1 59 4.7432886276510544e-06</internalNodes>
          <leafValues>
            -7.5861716270446777e-01 1.9435001909732819e-01</leafValues></_>
        <_>
          <internalNodes>
            0 -1 19 3.9957679109647870e-04</internalNodes>
          <leafValues>
            2.5034677982330322e-01 -7.4524885416030884e-01</leafValues></_>
        <_>
          <internalNodes>
            0 -1 67 1.5914228279143572e-03</internalNodes>
          <leafValues>
            -4.1520673036575317e-01 4.7820445895195007e-01</leafValues></_></weakClassifiers></_>
    <!-- stage 16 -->
    <_>
      <maxWeakCount>6</maxWeakCount>
      <stageThreshold>-1.2913506031036377e+00</stageThreshold>
      <weakClassifiers>
        <_>
          <internalNodes>
            0 -1 11 -1.6384212300181389e-02</internalNodes>
          <leafValues>
            3.8216561079025269e-02 -6.9829684495925903e-01</leafValues></_>
        <_>
          <internalNodes>
            0 -1 62 4.5770325232297182e-04</internalNodes>
          <leafValues>
            -7.8557026386260986e-01 1.7120780050754547e-01</leafValues></_>
        <_>
          <internalNodes>
            0 -1 7 -9.9206972663523629e-06</internalNodes>
          <leafValues>
            -6.3265758752822876e-01 2.6862511038780212e-01</leafValues></_>
        <_>
          <internalNodes>
            0 -1 14 6.4039253629744053e-04</internalNodes>
          <leafValues>
            2.7602571249008179e-01 -7.7852344512939453e-01</leafValues></_>
        <_>
          <internalNodes>
            0 -1 22 8.8701036293059587e-04</internalNodes>
          <leafValues>
            2.0068840682506561e-01 -7.9143857955932617e-01</leafValues></_>
        <_>
          <internalNodes>
            0 -1 13 -4.4265696487855166e-05</internalNodes>
          <leafValues>
            3.8380894064903259e-01 -4.6062147617340088e-01</leafValues></_></weakClassifiers></_></stages>
  <features>
    <_>
      <rects>
        <_>
          0 0 49 22 -1.</_>
        <_>
          0 11 49 11 2.</_></rects>
      <tilted>0</tilted></_>
    <_>
      <rects>
        <_>
          0 0 50 14 -1.</_>
        <_>
          0 7 50 7 2.</_></rects>
      <tilted>0</tilted></_>
    <_>
      <rects>
        <_>
          0 4 18 40 -1.</_>
        <_>
          9 4 9 40 2.</_></rects>
      <tilted>0</tilted></_>
    <_>
      <rects>
        <_>
          0 6 48 40 -1.</_>
        <_>
          16 6 16 40 3.</_></rects>
      <tilted>0</tilted></_>
    <_>
      <rects>
        <_>
          0 12 2 26 -1.</_>
        <_>
          1 12 1 26 2.</_></rects>
      <tilted>0</tilted></_>
    <_>
      <rects>
        <_>
          0 12 2 29 -1.</_>
        <_>
          1 12 1 29 2.</_></rects>
      <tilted>0</tilted></_>
    <_>
      <rects>
        <_>
          0 47 3 1 -1.</_>
        <_>
          1 47 1 1 3.</_></rects>
      <tilted>0</tilted></_>
    <_>
      <rects>
        <_>
          1 0 1 9 -1.</_>
        <_>
          1 3 1 3 3.</_></rects>
      <tilted>0</tilted></_>
    <_>
      <rects>
        <_>
          2 0 47 12 -1.</_>
        <_>
          2 6 47 6 2.</_></rects>
      <tilted>0</tilted></_>
    <_>
      <rects>
        <_>
          2 43 1 3 -1.</_>
        <_>
          2 44 1 1 3.</_></rects>
      <tilted>0</tilted></_>
    <_>
      <rects>
        <_>
          5 23 15 4 -1.</_>
        <_>
          10 23 5 4 3.</_></rects>
      <tilted>0</tilted></_>
    <_>
      <rects>
        <_>
          6 0 44 8 -1.</_>
        <_>
          6 4 44 4 2.</_></rects>
      <tilted>0</tilted></_>
    <_>
      <rects>
        <_>
          6 47 3 1 -1.</_>
        <_>
          7 47 1 1 3.</_></rects>
      <tilted>0</tilted></_>
    <_>
      <rects>
        <_>
          7 1 2 2 -1.</_>
        <_>
          7 1 1 1 2.</_>
        <_>
          8 2 1 1 2.</_></rects>
      <tilted>0</tilted></_>
    <_>
      <rects>
        <_>
          9 27 6 6 -1.</_>
        <_>
          12 27 3 6 2.</_></rects>
      <tilted>0</tilted></_>
    <_>
      <rects>
        <_>
          10 17 30 16 -1.</_>
        <_>
          20 17 10 16 3.</_></rects>
      <tilted>0</tilted></_>
    <_>
      <rects>
        <_>
          11 22 10 6 -1.</_>
        <_>
          16 22 5 6 2.</_></rects>
      <tilted>0</tilted></_>
    <_>
      <rects>
        <_>
          11 24 28 2 -1.</_>
        <_>
          25 24 14 2 2.</_></rects>
      <tilted>0</tilted></_>
    <_>
      <rects>
        <_>
          12 15 18 24 -1.</_>
        <_>
          12 15 9 12 2.</_>
        <_>
          21 27 9 12 2.</_></rects>
      <tilted>0</tilted></_>
    <_>
      <rects>
        <_>
          12 33 8 1 -1.</_>
        <_>
          16 33 4 1 2.</_></rects>
      <tilted>0</tilted></_>
    <_>
      <rects>
        <_>
          13 17 26 9 -1.</_>
        <_>
          13 20 26 3 3.</_></rects>
      <tilted>0</tilted></_>
    <_>
      <rects>
        <_>
          13 18 14 32 -1.</_>
        <_>
          13 18 7 16 2.</_>
        <_>
          20 34 7 16 2.</_></rects>
      <tilted>0</tilted></_>
    <_>
      <rects>
        <_>
          13 21 14 6 -1.</_>
        <_>
          13 21 7 3 2.</_>
        <_>
          20 24 7 3 2.</_></rects>
      <tilted>0</tilted></_>
    <_>
      <rects>
        <_>
          13 21 16 4 -1.</_>
        <_>
          13 21 8 2 2.</_>
        <_>
          21 23 8 2 2.</_></rects>
      <tilted>0</tilted></_>
    <_>
      <rects>
        <_>
          13 22 8 12 -1.</_>
        <_>
          13 28 8 6 2.</_></rects>
      <tilted>0</tilted></_>
    <_>
      <rects>
        <_>
          13 23 8 11 -1.</_>
        <_>
          17 23 4 11 2.</_></rects>
      <tilted>0</tilted></_>
    <_>
      <rects>
        <_>
          13 26 26 1 -1.</_>
        <_>
          26 26 13 1 2.</_></rects>
      <tilted>0</tilted></_>
    <_>
      <rects>
        <_>
          13 27 15 2 -1.</_>
        <_>
          18 27 5 2 3.</_></rects>
      <tilted>0</tilted></_>
    <_>
      <rects>
        <_>
          13 27 19 18 -1.</_>
        <_>
          13 33 19 6 3.</_></rects>
      <tilted>0</tilted></_>
    <_>
      <rects>
        <_>
          14 18 18 13 -1.</_>
        <_>
          23 18 9 13 2.</_></rects>
      <tilted>0</tilted></_>
    <_>
      <rects>
        <_>
          14 19 24 12 -1.</_>
        <_>
          26 19 12 12 2.</_></rects>
      <tilted>0</tilted></_>
    <_>
      <rects>
        <_>
          14 23 25 6 -1.</_>
        <_>
          14 26 25 3 2.</_></rects>
      <tilted>0</tilted></_>
    <_>
      <rects>
        <_>
          15 0 20 27 -1.</_>
        <_>
          15 9 20 9 3.</_></rects>
      <tilted>0</tilted></_>
    <_>
      <rects>
        <_>
          15 3 30 3 -1.</_>
        <_>
          25 3 10 3 3.</_></rects>
      <tilted>0</tilted></_>
    <_>
      <rects>
        <_>
          16 0 18 27 -1.</_>
        <_>
          16 9 18 9 3.</_></rects>
      <tilted>0</tilted></_>
    <_>
      <rects>
        <_>
          16 20 5 30 -1.</_>
        <_>
          16 30 5 10 3.</_></rects>
      <tilted>0</tilted></_>
    <_>
      <rects>
        <_>
          16 25 8 6 -1.</_>
        <_>
          16 25 4 3 2.</_>
        <_>
          20 28 4 3 2.</_></rects>
      <tilted>0</tilted></_>
    <_>
      <rects>
        <_>
          16 26 4 9 -1.</_>
        <_>
          18 26 2 9 2.</_></rects>
      <tilted>0</tilted></_>
    <_>
      <rects>
        <_>
          17 17 15 20 -1.</_>
        <_>
          17 27 15 10 2.</_></rects>
      <tilted>0</tilted></_>
    <_>
      <rects>
        <_>
          17 23 20 4 -1.</_>
        <_>
          17 25 20 2 2.</_></rects>
      <tilted>0</tilted></_>
    <_>
      <rects>
        <_>
          17 25 6 8 -1.</_>
        <_>
          17 25 3 4 2.</_>
        <_>
          20 29 3 4 2.</_></rects>
      <tilted>0</tilted></_>
    <_>
      <rects>
        <_>
          18 13 9 22 -1.</_>
        <_>
          18 24 9 11 2.</_></rects>
      <tilted>0</tilted></_>
    <_>
      <rects>
        <_>
          18 15 9 9 -1.</_>
        <_>
          21 15 3 9 3.</_></rects>
      <tilted>0</tilted></_>
    <_>
      <rects>
        <_>
          19 17 12 18 -1.</_>
        <_>
          19 26 12 9 2.</_></rects>
      <tilted>0</tilted></_>
    <_>
      <rects>
        <_>
          20 20 18 3 -1.</_>
        <_>
          29 20 9 3 2.</_></rects>
      <tilted>0</tilted></_>
    <_>
      <rects>
        <_>
          20 23 6 4 -1.</_>
        <_>
          23 23 3 4 2.</_></rects>
      <tilted>0</tilted></_>
    <_>
      <rects>
        <_>
          20 24 6 12 -1.</_>
        <_>
          20 24 3 6 2.</_>
        <_>
          23 30 3 6 2.</_></rects>
      <tilted>0</tilted></_>
    <_>
      <rects>
        <_>
          21 14 3 22 -1.</_>
        <_>
          21 25 3 11 2.</_></rects>
      <tilted>0</tilted></_>
    <_>
      <rects>
        <_>
          21 25 14 6 -1.</_>
        <_>
          21 25 7 3 2.</_>
        <_>
          28 28 7 3 2.</_></rects>
      <tilted>0</tilted></_>
    <_>
      <rects>
        <_>
          22 20 24 26 -1.</_>
        <_>
          22 20 12 13 2.</_>
        <_>
          34 33 12 13 2.</_></rects>
      <tilted>0</tilted></_>
    <_>
      <rects>
        <_>
          22 25 6 1 -1.</_>
        <_>
          25 25 3 1 2.</_></rects>
      <tilted>0</tilted></_>
    <_>
      <rects>
        <_>
          22 28 27 6 -1.</_>
        <_>
          31 28 9 6 3.</_></rects>
      <tilted>0</tilted></_>
    <_>
      <rects>
        <_>
          22 29 11 12 -1.</_>
        <_>
          22 33 11 4 3.</_></rects>
      <tilted>0</tilted></_>
    <_>
      <rects>
        <_>
          23 21 15 9 -1.</_>
        <_>
          28 21 5 9 3.</_></rects>
      <tilted>0</tilted></_>
    <_>
      <rects>
        <_>
          23 22 2 6 -1.</_>
        <_>
          23 25 2 3 2.</_></rects>
      <tilted>0</tilted></_>
    <_>
      <rects>
        <_>
          23 22 3 6 -1.</_>
        <_>
          23 24 3 2 3.</_></rects>
      <tilted>0</tilted></_>
    <_>
      <rects>
        <_>
          23 23 6 2 -1.</_>
        <_>
          26 23 3 2 2.</_></rects>
      <tilted>0</tilted></_>
    <_>
      <rects>
        <_>
          25 23 8 12 -1.</_>
        <_>
          25 23 4 6 2.</_>
        <_>
          29 29 4 6 2.</_></rects>
      <tilted>0</tilted></_>
    <_>
      <rects>
        <_>
          26 18 8 8 -1.</_>
        <_>
          26 18 4 4 2.</_>
        <_>
          30 22 4 4 2.</_></rects>
      <tilted>0</tilted></_>
    <_>
      <rects>
        <_>
          27 15 6 9 -1.</_>
        <_>
          29 15 2 9 3.</_></rects>
      <tilted>0</tilted></_>
    <_>
      <rects>
        <_>
          27 15 3 18 -1.</_>
        <_>
          27 24 3 9 2.</_></rects>
      <tilted>0</tilted></_>
    <_>
      <rects>
        <_>
          27 26 6 11 -1.</_>
        <_>
          29 26 2 11 3.</_></rects>
      <tilted>0</tilted></_>
    <_>
      <rects>
        <_>
          28 15 6 21 -1.</_>
        <_>
          30 15 2 21 3.</_></rects>
      <tilted>0</tilted></_>
    <_>
      <rects>
        <_>
          29 14 5 12 -1.</_>
        <_>
          29 20 5 6 2.</_></rects>
      <tilted>0</tilted></_>
    <_>
      <rects>
        <_>
          30 15 8 14 -1.</_>
        <_>
          30 22 8 7 2.</_></rects>
      <tilted>0</tilted></_>
    <_>
      <rects>
        <_>
          31 26 18 1 -1.</_>
        <_>
          37 26 6 1 3.</_></rects>
      <tilted>0</tilted></_>
    <_>
      <rects>
        <_>
          34 1 3 48 -1.</_>
        <_>
          34 17 3 16 3.</_></rects>
      <tilted>0</tilted></_>
    <_>
      <rects>
        <_>
          48 7 2 41 -1.</_>
        <_>
          49 7 1 41 2.</_></rects>
      <tilted>0</tilted></_>
    <_>
      <rects>
        <_>
          48 9 2 36 -1.</_>
        <_>
          49 9 1 36 2.</_></rects>
      <tilted>0</tilted></_>
    <_>
      <rects>
        <_>
          48 14 2 33 -1.</_>
        <_>
          49 14 1 33 2.</_></rects>
      <tilted>0</tilted></_>
    <_>
      <rects>
        <_>
          48 15 2 31 -1.</_>
        <_>
          49 15 1 31 2.</_></rects>
      <tilted>0</tilted></_></features></cascade>
</opencv_storage>
