<?xml version="1.0"?>
<opencv_storage>
<stage16>
  <maxWeakCount>6</maxWeakCount>
  <stageThreshold>-1.2913506031036377e+00</stageThreshold>
  <weakClassifiers>
    <_>
      <internalNodes>
        0 -1 684999 -1.6384212300181389e-02</internalNodes>
      <leafValues>
        3.8216561079025269e-02 -6.9829684495925903e-01</leafValues></_>
    <_>
      <internalNodes>
        0 -1 2462309 4.5770325232297182e-04</internalNodes>
      <leafValues>
        -7.8557026386260986e-01 1.7120780050754547e-01</leafValues></_>
    <_>
      <internalNodes>
        0 -1 119563 -9.9206972663523629e-06</internalNodes>
      <leafValues>
        -6.3265758752822876e-01 2.6862511038780212e-01</leafValues></_>
    <_>
      <internalNodes>
        0 -1 1065786 6.4039253629744053e-04</internalNodes>
      <leafValues>
        2.7602571249008179e-01 -7.7852344512939453e-01</leafValues></_>
    <_>
      <internalNodes>
        0 -1 1424436 8.8701036293059587e-04</internalNodes>
      <leafValues>
        2.0068840682506561e-01 -7.9143857955932617e-01</leafValues></_>
    <_>
      <internalNodes>
        0 -1 790024 -4.4265696487855166e-05</internalNodes>
      <leafValues>
        3.8380894064903259e-01 -4.6062147617340088e-01</leafValues></_></weakClassifiers></stage16>
</opencv_storage>
