<?xml version="1.0"?>
<opencv_storage>
<stage8>
  <maxWeakCount>5</maxWeakCount>
  <stageThreshold>-1.3056355714797974e+00</stageThreshold>
  <weakClassifiers>
    <_>
      <internalNodes>
        0 -1 240663 -4.9801424145698547e-02</internalNodes>
      <leafValues>
        3.0701753497123718e-01 -6.9416499137878418e-01</leafValues></_>
    <_>
      <internalNodes>
        0 -1 2619329 -1.0122968815267086e-03</internalNodes>
      <leafValues>
        2.3524838685989380e-01 -7.8828179836273193e-01</leafValues></_>
    <_>
      <internalNodes>
        0 -1 1418131 -4.1097521781921387e-02</internalNodes>
      <leafValues>
        4.9402776360511780e-01 -4.7454488277435303e-01</leafValues></_>
    <_>
      <internalNodes>
        0 -1 1763040 3.4029904054477811e-04</internalNodes>
      <leafValues>
        -6.0813003778457642e-01 3.8865658640861511e-01</leafValues></_>
    <_>
      <internalNodes>
        0 -1 1250948 -1.7022977117449045e-03</internalNodes>
      <leafValues>
        -9.1037309169769287e-01 2.5830361247062683e-01</leafValues></_></weakClassifiers></stage8>
</opencv_storage>
