<?xml version="1.0"?>
<opencv_storage>
<stage6>
  <maxWeakCount>6</maxWeakCount>
  <stageThreshold>-8.6881393194198608e-01</stageThreshold>
  <weakClassifiers>
    <_>
      <internalNodes>
        0 -1 1752415 -4.3450982775539160e-04</internalNodes>
      <leafValues>
        7.5813955068588257e-01 -5.5219125747680664e-01</leafValues></_>
    <_>
      <internalNodes>
        0 -1 1752312 -1.4429699513129890e-04</internalNodes>
      <leafValues>
        6.9472604990005493e-01 -3.3960396051406860e-01</leafValues></_>
    <_>
      <internalNodes>
        0 -1 2653742 9.5621449872851372e-04</internalNodes>
      <leafValues>
        -2.3895502090454102e-01 8.2229512929916382e-01</leafValues></_>
    <_>
      <internalNodes>
        0 -1 2694611 -3.1414066324941814e-04</internalNodes>
      <leafValues>
        7.9821860790252686e-01 -2.8393757343292236e-01</leafValues></_>
    <_>
      <internalNodes>
        0 -1 1820124 -1.6245033591985703e-02</internalNodes>
      <leafValues>
        -9.7123152017593384e-01 2.9075801372528076e-01</leafValues></_>
    <_>
      <internalNodes>
        0 -1 1597765 1.8412478268146515e-02</internalNodes>
      <leafValues>
        2.5511583685874939e-01 -9.6283161640167236e-01</leafValues></_></weakClassifiers></stage6>
</opencv_storage>
