<?xml version="1.0"?>
<opencv_storage>
<stage15>
  <maxWeakCount>8</maxWeakCount>
  <stageThreshold>-1.2996126413345337e+00</stageThreshold>
  <weakClassifiers>
    <_>
      <internalNodes>
        0 -1 1661879 1.9341928418725729e-03</internalNodes>
      <leafValues>
        -4.8650732636451721e-01 5.8381503820419312e-01</leafValues></_>
    <_>
      <internalNodes>
        0 -1 70734 -6.0867182910442352e-03</internalNodes>
      <leafValues>
        3.4761291742324829e-01 -3.9147469401359558e-01</leafValues></_>
    <_>
      <internalNodes>
        0 -1 1741917 -1.6593059990555048e-03</internalNodes>
      <leafValues>
        7.0477014780044556e-01 -1.9891279935836792e-01</leafValues></_>
    <_>
      <internalNodes>
        0 -1 1816997 -1.4153482625260949e-03</internalNodes>
      <leafValues>
        5.7199281454086304e-01 -1.7893429100513458e-01</leafValues></_>
    <_>
      <internalNodes>
        0 -1 2248467 -1.5300858649425209e-04</internalNodes>
      <leafValues>
        -1. 1.4193752408027649e-01</leafValues></_>
    <_>
      <internalNodes>
        0 -1 2249642 -7.2382767939416226e-06</internalNodes>
      <leafValues>
        3.5822755098342896e-01 -3.3445882797241211e-01</leafValues></_>
    <_>
      <internalNodes>
        0 -1 2417569 -1.0204887948930264e-03</internalNodes>
      <leafValues>
        4.3592399358749390e-01 -3.1541508436203003e-01</leafValues></_>
    <_>
      <internalNodes>
        0 -1 1318377 2.1911691874265671e-02</internalNodes>
      <leafValues>
        -2.8677418828010559e-01 5.2982950210571289e-01</leafValues></_></weakClassifiers></stage15>
</opencv_storage>
