<?xml version="1.0"?>
<opencv_storage>
<stage16>
  <maxWeakCount>10</maxWeakCount>
  <stageThreshold>-1.1005487442016602e+00</stageThreshold>
  <weakClassifiers>
    <_>
      <internalNodes>
        0 -1 1332736 1.0132191702723503e-02</internalNodes>
      <leafValues>
        -1.5377268195152283e-01 -8.7234044075012207e-01</leafValues></_>
    <_>
      <internalNodes>
        0 -1 2053941 -1.7070249305106699e-04</internalNodes>
      <leafValues>
        -4.9766188859939575e-01 2.0248989760875702e-01</leafValues></_>
    <_>
      <internalNodes>
        0 -1 1383071 -6.2827784568071365e-03</internalNodes>
      <leafValues>
        -6.6702133417129517e-01 2.3047554492950439e-01</leafValues></_>
    <_>
      <internalNodes>
        0 -1 861291 -4.5151817612349987e-03</internalNodes>
      <leafValues>
        2.8429594635963440e-01 -4.0703269839286804e-01</leafValues></_>
    <_>
      <internalNodes>
        0 -1 1411288 1.3465916737914085e-02</internalNodes>
      <leafValues>
        -3.0799496173858643e-01 4.5819807052612305e-01</leafValues></_>
    <_>
      <internalNodes>
        0 -1 2112874 7.0604798384010792e-03</internalNodes>
      <leafValues>
        -4.0519946813583374e-01 3.5538020730018616e-01</leafValues></_>
    <_>
      <internalNodes>
        0 -1 1911636 1.4382805675268173e-02</internalNodes>
      <leafValues>
        1.5941658616065979e-01 -8.8084232807159424e-01</leafValues></_>
    <_>
      <internalNodes>
        0 -1 1343264 -2.8081107884645462e-03</internalNodes>
      <leafValues>
        -6.0130524635314941e-01 1.8226191401481628e-01</leafValues></_>
    <_>
      <internalNodes>
        0 -1 2249023 6.0341809876263142e-04</internalNodes>
      <leafValues>
        -4.9893626570701599e-01 2.3942729830741882e-01</leafValues></_>
    <_>
      <internalNodes>
        0 -1 2117332 1.5759212896227837e-02</internalNodes>
      <leafValues>
        1.4911529421806335e-01 -9.8788237571716309e-01</leafValues></_></weakClassifiers></stage16>
</opencv_storage>
