<?xml version="1.0"?>
<opencv_storage>
<stage3>
  <maxWeakCount>5</maxWeakCount>
  <stageThreshold>-1.2182564735412598e+00</stageThreshold>
  <weakClassifiers>
    <_>
      <internalNodes>
        0 -1 3017814 -4.8600204172544181e-04</internalNodes>
      <leafValues>
        7.0446735620498657e-01 -6.2340968847274780e-01</leafValues></_>
    <_>
      <internalNodes>
        0 -1 892022 5.8161452412605286e-02</internalNodes>
      <leafValues>
        3.1153538823127747e-01 -8.8945227861404419e-01</leafValues></_>
    <_>
      <internalNodes>
        0 -1 336633 -2.1565263159573078e-04</internalNodes>
      <leafValues>
        9.0357893705368042e-01 -3.3366689085960388e-01</leafValues></_>
    <_>
      <internalNodes>
        0 -1 3018557 -1.1911460023839027e-04</internalNodes>
      <leafValues>
        6.9614380598068237e-01 -3.1227362155914307e-01</leafValues></_>
    <_>
      <internalNodes>
        0 -1 3009724 -2.3920708918012679e-04</internalNodes>
      <leafValues>
        8.4829574823379517e-01 -2.6044163107872009e-01</leafValues></_></weakClassifiers></stage3>
</opencv_storage>
