<?xml version="1.0"?>
<opencv_storage>
<stage14>
  <maxWeakCount>11</maxWeakCount>
  <stageThreshold>-1.3872754573822021e+00</stageThreshold>
  <weakClassifiers>
    <_>
      <internalNodes>
        0 -1 1744162 1.9306996837258339e-03</internalNodes>
      <leafValues>
        -4.8283752799034119e-01 6.4779871702194214e-01</leafValues></_>
    <_>
      <internalNodes>
        0 -1 1664323 -2.4797106161713600e-03</internalNodes>
      <leafValues>
        7.4900937080383301e-01 -2.0943337678909302e-01</leafValues></_>
    <_>
      <internalNodes>
        0 -1 2367253 5.5316639191005379e-05</internalNodes>
      <leafValues>
        2.0534527301788330e-01 -8.2731044292449951e-01</leafValues></_>
    <_>
      <internalNodes>
        0 -1 2622825 -1.2555187568068504e-03</internalNodes>
      <leafValues>
        6.3856494426727295e-01 -2.3675948381423950e-01</leafValues></_>
    <_>
      <internalNodes>
        0 -1 2222191 -7.2791725397109985e-03</internalNodes>
      <leafValues>
        -7.9527485370635986e-01 2.2926664352416992e-01</leafValues></_>
    <_>
      <internalNodes>
        0 -1 2665642 1.4071210753172636e-03</internalNodes>
      <leafValues>
        -2.5097486376762390e-01 6.3754940032958984e-01</leafValues></_>
    <_>
      <internalNodes>
        0 -1 1282646 -4.5492951758205891e-03</internalNodes>
      <leafValues>
        5.5418211221694946e-01 -2.1051502227783203e-01</leafValues></_>
    <_>
      <internalNodes>
        0 -1 1768717 1.5668820124119520e-03</internalNodes>
      <leafValues>
        -1.6584627330303192e-01 7.5078290700912476e-01</leafValues></_>
    <_>
      <internalNodes>
        0 -1 89612 -1.5951541718095541e-03</internalNodes>
      <leafValues>
        5.6287461519241333e-01 -1.9679901003837585e-01</leafValues></_>
    <_>
      <internalNodes>
        0 -1 1053400 -1.1789221316576004e-02</internalNodes>
      <leafValues>
        -7.6250725984573364e-01 1.6421686112880707e-01</leafValues></_>
    <_>
      <internalNodes>
        0 -1 2576581 -1.3661099364981055e-03</internalNodes>
      <leafValues>
        5.9597700834274292e-01 -2.3293861746788025e-01</leafValues></_></weakClassifiers></stage14>
</opencv_storage>
