<?xml version="1.0"?>
<opencv_storage>
<stage2>
  <maxWeakCount>8</maxWeakCount>
  <stageThreshold>-1.5217111110687256e+00</stageThreshold>
  <weakClassifiers>
    <_>
      <internalNodes>
        0 -1 1836478 2.8331376961432397e-04</internalNodes>
      <leafValues>
        -7.5565612316131592e-01 3.6842104792594910e-01</leafValues></_>
    <_>
      <internalNodes>
        0 -1 2122581 -3.5163717257091776e-05</internalNodes>
      <leafValues>
        -8.0699396133422852e-01 1.8435236811637878e-01</leafValues></_>
    <_>
      <internalNodes>
        0 -1 1059081 1.1909303721040487e-03</internalNodes>
      <leafValues>
        3.0987444519996643e-01 -7.4480396509170532e-01</leafValues></_>
    <_>
      <internalNodes>
        0 -1 2186186 7.5384101364761591e-04</internalNodes>
      <leafValues>
        -6.7823296785354614e-01 3.1074470281600952e-01</leafValues></_>
    <_>
      <internalNodes>
        0 -1 2309203 3.6160163290333003e-05</internalNodes>
      <leafValues>
        3.0407664179801941e-01 -6.8428421020507813e-01</leafValues></_>
    <_>
      <internalNodes>
        0 -1 1364757 -1.4333345461636782e-03</internalNodes>
      <leafValues>
        -7.2955161333084106e-01 2.4682086706161499e-01</leafValues></_>
    <_>
      <internalNodes>
        0 -1 2573873 -2.7063552988693118e-04</internalNodes>
      <leafValues>
        6.6843223571777344e-01 -3.1408548355102539e-01</leafValues></_>
    <_>
      <internalNodes>
        0 -1 1984852 2.4318491341546178e-04</internalNodes>
      <leafValues>
        2.4573957920074463e-01 -8.8887643814086914e-01</leafValues></_></weakClassifiers></stage2>
</opencv_storage>
