<?xml version="1.0"?>
<opencv_storage>
<cascade>
  <stageType>BOOST</stageType>
  <featureType>HAAR</featureType>
  <height>50</height>
  <width>50</width>
  <stageParams>
    <boostType>GAB</boostType>
    <minHitRate>9.9500000476837158e-01</minHitRate>
    <maxFalseAlarm>5.0000000000000000e-01</maxFalseAlarm>
    <weightTrimRate>9.4999999999999996e-01</weightTrimRate>
    <maxDepth>1</maxDepth>
    <maxWeakCount>100</maxWeakCount></stageParams>
  <featureParams>
    <maxCatCount>0</maxCatCount>
    <featSize>1</featSize>
    <mode>BASIC</mode></featureParams>
  <stageNum>17</stageNum>
  <stages>
    <!-- stage 0 -->
    <_>
      <maxWeakCount>3</maxWeakCount>
      <stageThreshold>-9.5107144117355347e-01</stageThreshold>
      <weakClassifiers>
        <_>
          <internalNodes>
            0 -1 33 -3.5052344202995300e-02</internalNodes>
          <leafValues>
            2.3566879332065582e-01 -8.3931279182434082e-01</leafValues></_>
        <_>
          <internalNodes>
            0 -1 80 7.1897227317094803e-03</internalNodes>
          <leafValues>
            -6.3011652231216431e-01 6.3077080249786377e-01</leafValues></_>
        <_>
          <internalNodes>
            0 -1 13 -1.4517888193950057e-03</internalNodes>
          <leafValues>
            6.5454626083374023e-01 -5.5662369728088379e-01</leafValues></_></weakClassifiers></_>
    <!-- stage 1 -->
    <_>
      <maxWeakCount>4</maxWeakCount>
      <stageThreshold>-1.2999626398086548e+00</stageThreshold>
      <weakClassifiers>
        <_>
          <internalNodes>
            0 -1 24 -4.3939575552940369e-03</internalNodes>
          <leafValues>
            -4.7285463660955429e-02 -8.1053751707077026e-01</leafValues></_>
        <_>
          <internalNodes>
            0 -1 46 3.8486700505018234e-03</internalNodes>
          <leafValues>
            -7.2259217500686646e-01 2.4919100105762482e-01</leafValues></_>
        <_>
          <internalNodes>
            0 -1 61 1.7335596203338355e-04</internalNodes>
          <leafValues>
            2.0274515450000763e-01 -9.8466777801513672e-01</leafValues></_>
        <_>
          <internalNodes>
            0 -1 68 -1.0174135677516460e-03</internalNodes>
          <leafValues>
            -7.5348556041717529e-01 2.4605174362659454e-01</leafValues></_></weakClassifiers></_>
    <!-- stage 2 -->
    <_>
      <maxWeakCount>5</maxWeakCount>
      <stageThreshold>-1.6360152959823608e+00</stageThreshold>
      <weakClassifiers>
        <_>
          <internalNodes>
            0 -1 85 -1.0620851535350084e-03</internalNodes>
          <leafValues>
            7.1428573131561279e-01 -7.3626375198364258e-01</leafValues></_>
        <_>
          <internalNodes>
            0 -1 23 -1.3342273887246847e-03</internalNodes>
          <leafValues>
            2.2896942496299744e-01 -8.6661237478256226e-01</leafValues></_>
        <_>
          <internalNodes>
            0 -1 92 7.0355733623728156e-04</internalNodes>
          <leafValues>
            -5.2746874094009399e-01 4.1670346260070801e-01</leafValues></_>
        <_>
          <internalNodes>
            0 -1 31 2.3245884221978486e-04</internalNodes>
          <leafValues>
            2.7260902523994446e-01 -8.1552046537399292e-01</leafValues></_>
        <_>
          <internalNodes>
            0 -1 60 -8.9027564972639084e-03</internalNodes>
          <leafValues>
            -9.5703887939453125e-01 2.2172060608863831e-01</leafValues></_></weakClassifiers></_>
    <!-- stage 3 -->
    <_>
      <maxWeakCount>5</maxWeakCount>
      <stageThreshold>-1.1909602880477905e+00</stageThreshold>
      <weakClassifiers>
        <_>
          <internalNodes>
            0 -1 25 -8.4184203296899796e-04</internalNodes>
          <leafValues>
            5.9420287609100342e-01 -7.4587607383728027e-01</leafValues></_>
        <_>
          <internalNodes>
            0 -1 77 4.4782075565308332e-04</internalNodes>
          <leafValues>
            -4.8737499117851257e-01 7.2551989555358887e-01</leafValues></_>
        <_>
          <internalNodes>
            0 -1 92 6.8192672915756702e-04</internalNodes>
          <leafValues>
            -5.5071848630905151e-01 5.1781237125396729e-01</leafValues></_>
        <_>
          <internalNodes>
            0 -1 57 5.1619065925478935e-03</internalNodes>
          <leafValues>
            2.6467332243919373e-01 -9.4727700948715210e-01</leafValues></_>
        <_>
          <internalNodes>
            0 -1 54 -2.5279526598751545e-03</internalNodes>
          <leafValues>
            3.2833588123321533e-01 -6.8379545211791992e-01</leafValues></_></weakClassifiers></_>
    <!-- stage 4 -->
    <_>
      <maxWeakCount>6</maxWeakCount>
      <stageThreshold>-1.0650688409805298e+00</stageThreshold>
      <weakClassifiers>
        <_>
          <internalNodes>
            0 -1 37 -2.2458126768469810e-03</internalNodes>
          <leafValues>
            6.9512194395065308e-01 -5.1632970571517944e-01</leafValues></_>
        <_>
          <internalNodes>
            0 -1 32 2.8068223036825657e-03</internalNodes>
          <leafValues>
            -4.8367628455162048e-01 4.2081689834594727e-01</leafValues></_>
        <_>
          <internalNodes>
            0 -1 10 -5.0928583368659019e-03</internalNodes>
          <leafValues>
            3.3313366770744324e-01 -6.1961024999618530e-01</leafValues></_>
        <_>
          <internalNodes>
            0 -1 65 -1.3699276372790337e-02</internalNodes>
          <leafValues>
            -9.3058627843856812e-01 2.2352814674377441e-01</leafValues></_>
        <_>
          <internalNodes>
            0 -1 51 2.0503122359514236e-03</internalNodes>
          <leafValues>
            -6.7169803380966187e-01 2.7141362428665161e-01</leafValues></_>
        <_>
          <internalNodes>
            0 -1 63 1.1226006783545017e-02</internalNodes>
          <leafValues>
            2.4542108178138733e-01 -8.9313822984695435e-01</leafValues></_></weakClassifiers></_>
    <!-- stage 5 -->
    <_>
      <maxWeakCount>6</maxWeakCount>
      <stageThreshold>-1.0344815254211426e+00</stageThreshold>
      <weakClassifiers>
        <_>
          <internalNodes>
            0 -1 79 -5.2347307791933417e-04</internalNodes>
          <leafValues>
            5.1372551918029785e-01 -5.6987446546554565e-01</leafValues></_>
        <_>
          <internalNodes>
            0 -1 18 -2.9979846440255642e-03</internalNodes>
          <leafValues>
            6.2312465906143188e-01 -3.6243563890457153e-01</leafValues></_>
        <_>
          <internalNodes>
            0 -1 4 -2.7398964448366314e-05</internalNodes>
          <leafValues>
            -8.0936837196350098e-01 2.4504660069942474e-01</leafValues></_>
        <_>
          <internalNodes>
            0 -1 69 2.3893482284620404e-04</internalNodes>
          <leafValues>
            -3.0995827913284302e-01 6.7005479335784912e-01</leafValues></_>
        <_>
          <internalNodes>
            0 -1 72 -3.6749627906829119e-04</internalNodes>
          <leafValues>
            5.3830653429031372e-01 -4.0927565097808838e-01</leafValues></_>
        <_>
          <internalNodes>
            0 -1 76 5.8239570353180170e-04</internalNodes>
          <leafValues>
            -5.0116437673568726e-01 4.2400613427162170e-01</leafValues></_></weakClassifiers></_>
    <!-- stage 6 -->
    <_>
      <maxWeakCount>4</maxWeakCount>
      <stageThreshold>-7.7008748054504395e-01</stageThreshold>
      <weakClassifiers>
        <_>
          <internalNodes>
            0 -1 3 1.9180310890078545e-02</internalNodes>
          <leafValues>
            -5.5684649944305420e-01 4.9387755990028381e-01</leafValues></_>
        <_>
          <internalNodes>
            0 -1 66 -8.2328762800898403e-05</internalNodes>
          <leafValues>
            2.2439423203468323e-01 -8.4297156333923340e-01</leafValues></_>
        <_>
          <internalNodes>
            0 -1 34 -1.2974012643098831e-03</internalNodes>
          <leafValues>
            2.9722055792808533e-01 -7.1786791086196899e-01</leafValues></_>
        <_>
          <internalNodes>
            0 -1 42 -2.3430292494595051e-03</internalNodes>
          <leafValues>
            3.3250999450683594e-01 -6.2054497003555298e-01</leafValues></_></weakClassifiers></_>
    <!-- stage 7 -->
    <_>
      <maxWeakCount>5</maxWeakCount>
      <stageThreshold>-7.4383735656738281e-01</stageThreshold>
      <weakClassifiers>
        <_>
          <internalNodes>
            0 -1 39 6.8887748057022691e-04</internalNodes>
          <leafValues>
            -6.9458127021789551e-01 2.1943572908639908e-02</leafValues></_>
        <_>
          <internalNodes>
            0 -1 44 -1.2096960097551346e-02</internalNodes>
          <leafValues>
            -9.6554499864578247e-01 1.2385480105876923e-01</leafValues></_>
        <_>
          <internalNodes>
            0 -1 28 3.9406524592777714e-05</internalNodes>
          <leafValues>
            1.8417632579803467e-01 -8.5555982589721680e-01</leafValues></_>
        <_>
          <internalNodes>
            0 -1 14 -1.8350542522966862e-03</internalNodes>
          <leafValues>
            3.2353311777114868e-01 -4.9555954337120056e-01</leafValues></_>
        <_>
          <internalNodes>
            0 -1 74 7.7647669240832329e-04</internalNodes>
          <leafValues>
            -3.0794537067413330e-01 6.1198824644088745e-01</leafValues></_></weakClassifiers></_>
    <!-- stage 8 -->
    <_>
      <maxWeakCount>4</maxWeakCount>
      <stageThreshold>-6.4077329635620117e-01</stageThreshold>
      <weakClassifiers>
        <_>
          <internalNodes>
            0 -1 30 -2.5741558521986008e-02</internalNodes>
          <leafValues>
            2.0089285075664520e-01 -6.3872253894805908e-01</leafValues></_>
        <_>
          <internalNodes>
            0 -1 5 1.4611832739319652e-04</internalNodes>
          <leafValues>
            1.6476823389530182e-01 -8.8010096549987793e-01</leafValues></_>
        <_>
          <internalNodes>
            0 -1 86 5.5591529235243797e-03</internalNodes>
          <leafValues>
            -4.0352630615234375e-01 5.2273565530776978e-01</leafValues></_>
        <_>
          <internalNodes>
            0 -1 47 -1.3691866770386696e-02</internalNodes>
          <leafValues>
            -1. 2.3670732975006104e-01</leafValues></_></weakClassifiers></_>
    <!-- stage 9 -->
    <_>
      <maxWeakCount>6</maxWeakCount>
      <stageThreshold>-9.5280987024307251e-01</stageThreshold>
      <weakClassifiers>
        <_>
          <internalNodes>
            0 -1 36 -5.3813848644495010e-03</internalNodes>
          <leafValues>
            5.9562844038009644e-01 -5.2012628316879272e-01</leafValues></_>
        <_>
          <internalNodes>
            0 -1 20 -1.4035280793905258e-02</internalNodes>
          <leafValues>
            6.2318331003189087e-01 -2.8551831841468811e-01</leafValues></_>
        <_>
          <internalNodes>
            0 -1 52 -4.2274137958884239e-03</internalNodes>
          <leafValues>
            4.6529996395111084e-01 -4.4493412971496582e-01</leafValues></_>
        <_>
          <internalNodes>
            0 -1 58 1.5073087066411972e-02</internalNodes>
          <leafValues>
            1.8812951445579529e-01 -1.</leafValues></_>
        <_>
          <internalNodes>
            0 -1 91 3.2291742973029613e-03</internalNodes>
          <leafValues>
            -2.1456384658813477e-01 7.6167351007461548e-01</leafValues></_>
        <_>
          <internalNodes>
            0 -1 21 4.6468244363495614e-06</internalNodes>
          <leafValues>
            -5.1200354099273682e-01 3.2420319318771362e-01</leafValues></_></weakClassifiers></_>
    <!-- stage 10 -->
    <_>
      <maxWeakCount>7</maxWeakCount>
      <stageThreshold>-1.3981685638427734e+00</stageThreshold>
      <weakClassifiers>
        <_>
          <internalNodes>
            0 -1 83 -2.1092575043439865e-03</internalNodes>
          <leafValues>
            3.1446539796888828e-03 -6.7813265323638916e-01</leafValues></_>
        <_>
          <internalNodes>
            0 -1 7 4.7595945943612605e-05</internalNodes>
          <leafValues>
            1.0705561190843582e-01 -8.8492715358734131e-01</leafValues></_>
        <_>
          <internalNodes>
            0 -1 8 -1.9602058455348015e-03</internalNodes>
          <leafValues>
            1.8993210792541504e-01 -7.6068133115768433e-01</leafValues></_>
        <_>
          <internalNodes>
            0 -1 29 -1.0404495522379875e-02</internalNodes>
          <leafValues>
            7.1566271781921387e-01 -2.2562703490257263e-01</leafValues></_>
        <_>
          <internalNodes>
            0 -1 2 4.3966148950858042e-05</internalNodes>
          <leafValues>
            2.3245184123516083e-01 -7.1596050262451172e-01</leafValues></_>
        <_>
          <internalNodes>
            0 -1 17 6.7687500268220901e-04</internalNodes>
          <leafValues>
            -3.0659016966819763e-01 5.6762754917144775e-01</leafValues></_>
        <_>
          <internalNodes>
            0 -1 19 8.1131787737831473e-05</internalNodes>
          <leafValues>
            2.3115408420562744e-01 -7.8711950778961182e-01</leafValues></_></weakClassifiers></_>
    <!-- stage 11 -->
    <_>
      <maxWeakCount>7</maxWeakCount>
      <stageThreshold>-1.4512867927551270e+00</stageThreshold>
      <weakClassifiers>
        <_>
          <internalNodes>
            0 -1 95 3.4534079022705555e-03</internalNodes>
          <leafValues>
            -5.1062154769897461e-01 5.5307263135910034e-01</leafValues></_>
        <_>
          <internalNodes>
            0 -1 71 3.9004949030641001e-06</internalNodes>
          <leafValues>
            -5.8984565734863281e-01 2.4806687235832214e-01</leafValues></_>
        <_>
          <internalNodes>
            0 -1 64 -1.4428951544687152e-03</internalNodes>
          <leafValues>
            6.5309232473373413e-01 -2.4734769761562347e-01</leafValues></_>
        <_>
          <internalNodes>
            0 -1 0 -2.5331273674964905e-02</internalNodes>
          <leafValues>
            4.3548938632011414e-01 -3.6839586496353149e-01</leafValues></_>
        <_>
          <internalNodes>
            0 -1 11 3.7947950204397785e-06</internalNodes>
          <leafValues>
            -5.1297193765640259e-01 3.4794053435325623e-01</leafValues></_>
        <_>
          <internalNodes>
            0 -1 67 1.2556267902255058e-03</internalNodes>
          <leafValues>
            -4.5435369014739990e-01 3.8021072745323181e-01</leafValues></_>
        <_>
          <internalNodes>
            0 -1 81 2.9504843987524509e-03</internalNodes>
          <leafValues>
            -4.6657535433769226e-01 3.6967512965202332e-01</leafValues></_></weakClassifiers></_>
    <!-- stage 12 -->
    <_>
      <maxWeakCount>7</maxWeakCount>
      <stageThreshold>-7.8014004230499268e-01</stageThreshold>
      <weakClassifiers>
        <_>
          <internalNodes>
            0 -1 35 -3.0727186240255833e-03</internalNodes>
          <leafValues>
            4.2718446254730225e-01 -5.1286172866821289e-01</leafValues></_>
        <_>
          <internalNodes>
            0 -1 12 -1.4905666466802359e-03</internalNodes>
          <leafValues>
            2.0648279786109924e-01 -6.7285305261611938e-01</leafValues></_>
        <_>
          <internalNodes>
            0 -1 22 -8.7985674326773733e-05</internalNodes>
          <leafValues>
            -6.0520541667938232e-01 2.4970944225788116e-01</leafValues></_>
        <_>
          <internalNodes>
            0 -1 1 2.1096874843351543e-04</internalNodes>
          <leafValues>
            1.5908157825469971e-01 -9.6862024068832397e-01</leafValues></_>
        <_>
          <internalNodes>
            0 -1 73 9.8334403446642682e-06</internalNodes>
          <leafValues>
            -4.6458756923675537e-01 3.3325070142745972e-01</leafValues></_>
        <_>
          <internalNodes>
            0 -1 94 1.4639901928603649e-04</internalNodes>
          <leafValues>
            2.2612155973911285e-01 -6.2245142459869385e-01</leafValues></_>
        <_>
          <internalNodes>
            0 -1 84 -5.4657255532220006e-05</internalNodes>
          <leafValues>
            2.8598442673683167e-01 -4.6692293882369995e-01</leafValues></_></weakClassifiers></_>
    <!-- stage 13 -->
    <_>
      <maxWeakCount>7</maxWeakCount>
      <stageThreshold>-1.1652772426605225e+00</stageThreshold>
      <weakClassifiers>
        <_>
          <internalNodes>
            0 -1 82 -3.6685462109744549e-03</internalNodes>
          <leafValues>
            6.7647057771682739e-01 -4.8858448863029480e-01</leafValues></_>
        <_>
          <internalNodes>
            0 -1 9 -3.1099378247745335e-05</internalNodes>
          <leafValues>
            -7.8033125400543213e-01 2.0099155604839325e-01</leafValues></_>
        <_>
          <internalNodes>
            0 -1 15 5.3448206745088100e-04</internalNodes>
          <leafValues>
            -2.9546195268630981e-01 4.5746749639511108e-01</leafValues></_>
        <_>
          <internalNodes>
            0 -1 87 1.7341030761599541e-03</internalNodes>
          <leafValues>
            -4.6241679787635803e-01 3.3770027756690979e-01</leafValues></_>
        <_>
          <internalNodes>
            0 -1 49 1.4398861821973696e-05</internalNodes>
          <leafValues>
            -4.6945053339004517e-01 3.4090071916580200e-01</leafValues></_>
        <_>
          <internalNodes>
            0 -1 45 2.7934932149946690e-03</internalNodes>
          <leafValues>
            -3.1189179420471191e-01 4.8059594631195068e-01</leafValues></_>
        <_>
          <internalNodes>
            0 -1 6 7.5459436629898846e-05</internalNodes>
          <leafValues>
            2.3676675558090210e-01 -7.6009643077850342e-01</leafValues></_></weakClassifiers></_>
    <!-- stage 14 -->
    <_>
      <maxWeakCount>8</maxWeakCount>
      <stageThreshold>-1.0995761156082153e+00</stageThreshold>
      <weakClassifiers>
        <_>
          <internalNodes>
            0 -1 16 -3.9361296221613884e-03</internalNodes>
          <leafValues>
            3.2214763760566711e-01 -5.6076389551162720e-01</leafValues></_>
        <_>
          <internalNodes>
            0 -1 27 -1.9434364512562752e-03</internalNodes>
          <leafValues>
            4.0011459589004517e-01 -3.8063871860504150e-01</leafValues></_>
        <_>
          <internalNodes>
            0 -1 75 2.1478962153196335e-03</internalNodes>
          <leafValues>
            -2.6971775293350220e-01 5.6468963623046875e-01</leafValues></_>
        <_>
          <internalNodes>
            0 -1 48 -2.3956988006830215e-03</internalNodes>
          <leafValues>
            6.7917597293853760e-01 -2.0029048621654510e-01</leafValues></_>
        <_>
          <internalNodes>
            0 -1 43 -1.1974408698733896e-04</internalNodes>
          <leafValues>
            -8.3637458086013794e-01 1.9945311546325684e-01</leafValues></_>
        <_>
          <internalNodes>
            0 -1 70 9.4844761770218611e-04</internalNodes>
          <leafValues>
            -2.7615493535995483e-01 5.0984674692153931e-01</leafValues></_>
        <_>
          <internalNodes>
            0 -1 56 4.3779051338788122e-05</internalNodes>
          <leafValues>
            -3.9800027012825012e-01 4.0417155623435974e-01</leafValues></_>
        <_>
          <internalNodes>
            0 -1 59 -6.1314676713664085e-05</internalNodes>
          <leafValues>
            -5.6086933612823486e-01 2.5560954213142395e-01</leafValues></_></weakClassifiers></_>
    <!-- stage 15 -->
    <_>
      <maxWeakCount>7</maxWeakCount>
      <stageThreshold>-9.7912997007369995e-01</stageThreshold>
      <weakClassifiers>
        <_>
          <internalNodes>
            0 -1 38 -1.2602517381310463e-03</internalNodes>
          <leafValues>
            -1.0928319394588470e-01 -7.6293820142745972e-01</leafValues></_>
        <_>
          <internalNodes>
            0 -1 89 -1.7770686099538580e-05</internalNodes>
          <leafValues>
            -6.6999858617782593e-01 1.6593296825885773e-01</leafValues></_>
        <_>
          <internalNodes>
            0 -1 90 5.9808822697959840e-05</internalNodes>
          <leafValues>
            1.8376550078392029e-01 -8.5804802179336548e-01</leafValues></_>
        <_>
          <internalNodes>
            0 -1 93 -1.4259485760703683e-03</internalNodes>
          <leafValues>
            6.3577759265899658e-01 -2.5782918930053711e-01</leafValues></_>
        <_>
          <internalNodes>
            0 -1 55 4.9712890759110451e-03</internalNodes>
          <leafValues>
            1.6870665550231934e-01 -9.0911853313446045e-01</leafValues></_>
        <_>
          <internalNodes>
            0 -1 62 6.2398193404078484e-04</internalNodes>
          <leafValues>
            -4.9825856089591980e-01 2.5978529453277588e-01</leafValues></_>
        <_>
          <internalNodes>
            0 -1 53 -3.6895385710522532e-04</internalNodes>
          <leafValues>
            -5.8243519067764282e-01 2.4758526682853699e-01</leafValues></_></weakClassifiers></_>
    <!-- stage 16 -->
    <_>
      <maxWeakCount>6</maxWeakCount>
      <stageThreshold>-1.0607602596282959e+00</stageThreshold>
      <weakClassifiers>
        <_>
          <internalNodes>
            0 -1 26 -4.1183382272720337e-03</internalNodes>
          <leafValues>
            6.1971831321716309e-01 -4.8776757717132568e-01</leafValues></_>
        <_>
          <internalNodes>
            0 -1 78 -7.6702935984940268e-06</internalNodes>
          <leafValues>
            2.4741524457931519e-01 -5.7506859302520752e-01</leafValues></_>
        <_>
          <internalNodes>
            0 -1 88 -6.4224543166346848e-05</internalNodes>
          <leafValues>
            -6.6612905263900757e-01 2.5965368747711182e-01</leafValues></_>
        <_>
          <internalNodes>
            0 -1 40 -3.0653695575892925e-03</internalNodes>
          <leafValues>
            7.5311344861984253e-01 -2.0813602209091187e-01</leafValues></_>
        <_>
          <internalNodes>
            0 -1 41 -4.7955680638551712e-03</internalNodes>
          <leafValues>
            5.2442979812622070e-01 -2.7071109414100647e-01</leafValues></_>
        <_>
          <internalNodes>
            0 -1 50 -3.0587945366278291e-04</internalNodes>
          <leafValues>
            2.3780094087123871e-01 -6.3668113946914673e-01</leafValues></_></weakClassifiers></_></stages>
  <features>
    <_>
      <rects>
        <_>
          0 0 43 6 -1.</_>
        <_>
          0 3 43 3 2.</_></rects>
      <tilted>0</tilted></_>
    <_>
      <rects>
        <_>
          0 1 1 4 -1.</_>
        <_>
          0 3 1 2 2.</_></rects>
      <tilted>0</tilted></_>
    <_>
      <rects>
        <_>
          0 3 2 2 -1.</_>
        <_>
          0 4 2 1 2.</_></rects>
      <tilted>0</tilted></_>
    <_>
      <rects>
        <_>
          0 3 9 15 -1.</_>
        <_>
          0 8 9 5 3.</_></rects>
      <tilted>0</tilted></_>
    <_>
      <rects>
        <_>
          0 4 1 2 -1.</_>
        <_>
          0 5 1 1 2.</_></rects>
      <tilted>0</tilted></_>
    <_>
      <rects>
        <_>
          0 4 2 2 -1.</_>
        <_>
          0 5 2 1 2.</_></rects>
      <tilted>0</tilted></_>
    <_>
      <rects>
        <_>
          0 4 6 2 -1.</_>
        <_>
          0 4 3 1 2.</_>
        <_>
          3 5 3 1 2.</_></rects>
      <tilted>0</tilted></_>
    <_>
      <rects>
        <_>
          0 6 2 2 -1.</_>
        <_>
          0 6 1 1 2.</_>
        <_>
          1 7 1 1 2.</_></rects>
      <tilted>0</tilted></_>
    <_>
      <rects>
        <_>
          0 7 22 36 -1.</_>
        <_>
          11 7 11 36 2.</_></rects>
      <tilted>0</tilted></_>
    <_>
      <rects>
        <_>
          0 8 1 9 -1.</_>
        <_>
          0 11 1 3 3.</_></rects>
      <tilted>0</tilted></_>
    <_>
      <rects>
        <_>
          0 8 14 6 -1.</_>
        <_>
          7 8 7 6 2.</_></rects>
      <tilted>0</tilted></_>
    <_>
      <rects>
        <_>
          0 9 2 3 -1.</_>
        <_>
          1 9 1 3 2.</_></rects>
      <tilted>0</tilted></_>
    <_>
      <rects>
        <_>
          0 20 6 14 -1.</_>
        <_>
          3 20 3 14 2.</_></rects>
      <tilted>0</tilted></_>
    <_>
      <rects>
        <_>
          0 23 4 5 -1.</_>
        <_>
          2 23 2 5 2.</_></rects>
      <tilted>0</tilted></_>
    <_>
      <rects>
        <_>
          0 33 8 7 -1.</_>
        <_>
          4 33 4 7 2.</_></rects>
      <tilted>0</tilted></_>
    <_>
      <rects>
        <_>
          0 34 1 9 -1.</_>
        <_>
          0 37 1 3 3.</_></rects>
      <tilted>0</tilted></_>
    <_>
      <rects>
        <_>
          0 41 4 6 -1.</_>
        <_>
          0 43 4 2 3.</_></rects>
      <tilted>0</tilted></_>
    <_>
      <rects>
        <_>
          0 43 6 1 -1.</_>
        <_>
          3 43 3 1 2.</_></rects>
      <tilted>0</tilted></_>
    <_>
      <rects>
        <_>
          0 43 37 3 -1.</_>
        <_>
          0 44 37 1 3.</_></rects>
      <tilted>0</tilted></_>
    <_>
      <rects>
        <_>
          0 46 2 2 -1.</_>
        <_>
          1 46 1 2 2.</_></rects>
      <tilted>0</tilted></_>
    <_>
      <rects>
        <_>
          1 0 36 6 -1.</_>
        <_>
          1 0 18 3 2.</_>
        <_>
          19 3 18 3 2.</_></rects>
      <tilted>0</tilted></_>
    <_>
      <rects>
        <_>
          1 1 2 5 -1.</_>
        <_>
          2 1 1 5 2.</_></rects>
      <tilted>0</tilted></_>
    <_>
      <rects>
        <_>
          1 1 2 4 -1.</_>
        <_>
          1 3 2 2 2.</_></rects>
      <tilted>0</tilted></_>
    <_>
      <rects>
        <_>
          1 8 12 7 -1.</_>
        <_>
          7 8 6 7 2.</_></rects>
      <tilted>0</tilted></_>
    <_>
      <rects>
        <_>
          1 8 14 2 -1.</_>
        <_>
          8 8 7 2 2.</_></rects>
      <tilted>0</tilted></_>
    <_>
      <rects>
        <_>
          1 42 2 3 -1.</_>
        <_>
          1 43 2 1 3.</_></rects>
      <tilted>0</tilted></_>
    <_>
      <rects>
        <_>
          1 43 8 3 -1.</_>
        <_>
          1 44 8 1 3.</_></rects>
      <tilted>0</tilted></_>
    <_>
      <rects>
        <_>
          1 47 15 1 -1.</_>
        <_>
          6 47 5 1 3.</_></rects>
      <tilted>0</tilted></_>
    <_>
      <rects>
        <_>
          2 2 1 3 -1.</_>
        <_>
          2 3 1 1 3.</_></rects>
      <tilted>0</tilted></_>
    <_>
      <rects>
        <_>
          2 45 12 5 -1.</_>
        <_>
          6 45 4 5 3.</_></rects>
      <tilted>0</tilted></_>
    <_>
      <rects>
        <_>
          3 0 40 6 -1.</_>
        <_>
          3 3 40 3 2.</_></rects>
      <tilted>0</tilted></_>
    <_>
      <rects>
        <_>
          3 8 6 6 -1.</_>
        <_>
          3 11 6 3 2.</_></rects>
      <tilted>0</tilted></_>
    <_>
      <rects>
        <_>
          3 44 12 6 -1.</_>
        <_>
          3 47 12 3 2.</_></rects>
      <tilted>0</tilted></_>
    <_>
      <rects>
        <_>
          4 0 41 8 -1.</_>
        <_>
          4 4 41 4 2.</_></rects>
      <tilted>0</tilted></_>
    <_>
      <rects>
        <_>
          5 0 1 26 -1.</_>
        <_>
          5 13 1 13 2.</_></rects>
      <tilted>0</tilted></_>
    <_>
      <rects>
        <_>
          5 2 2 6 -1.</_>
        <_>
          5 4 2 2 3.</_></rects>
      <tilted>0</tilted></_>
    <_>
      <rects>
        <_>
          5 2 4 6 -1.</_>
        <_>
          5 4 4 2 3.</_></rects>
      <tilted>0</tilted></_>
    <_>
      <rects>
        <_>
          5 2 6 3 -1.</_>
        <_>
          5 3 6 1 3.</_></rects>
      <tilted>0</tilted></_>
    <_>
      <rects>
        <_>
          5 7 5 8 -1.</_>
        <_>
          5 11 5 4 2.</_></rects>
      <tilted>0</tilted></_>
    <_>
      <rects>
        <_>
          5 46 8 4 -1.</_>
        <_>
          5 46 4 2 2.</_>
        <_>
          9 48 4 2 2.</_></rects>
      <tilted>0</tilted></_>
    <_>
      <rects>
        <_>
          6 0 1 9 -1.</_>
        <_>
          6 3 1 3 3.</_></rects>
      <tilted>0</tilted></_>
    <_>
      <rects>
        <_>
          6 3 3 12 -1.</_>
        <_>
          6 9 3 6 2.</_></rects>
      <tilted>0</tilted></_>
    <_>
      <rects>
        <_>
          6 23 24 6 -1.</_>
        <_>
          18 23 12 6 2.</_></rects>
      <tilted>0</tilted></_>
    <_>
      <rects>
        <_>
          8 1 2 3 -1.</_>
        <_>
          8 2 2 1 3.</_></rects>
      <tilted>0</tilted></_>
    <_>
      <rects>
        <_>
          10 19 18 23 -1.</_>
        <_>
          16 19 6 23 3.</_></rects>
      <tilted>0</tilted></_>
    <_>
      <rects>
        <_>
          10 40 3 8 -1.</_>
        <_>
          10 44 3 4 2.</_></rects>
      <tilted>0</tilted></_>
    <_>
      <rects>
        <_>
          11 44 30 6 -1.</_>
        <_>
          11 47 30 3 2.</_></rects>
      <tilted>0</tilted></_>
    <_>
      <rects>
        <_>
          13 21 24 9 -1.</_>
        <_>
          25 21 12 9 2.</_></rects>
      <tilted>0</tilted></_>
    <_>
      <rects>
        <_>
          13 31 6 6 -1.</_>
        <_>
          13 31 3 3 2.</_>
        <_>
          16 34 3 3 2.</_></rects>
      <tilted>0</tilted></_>
    <_>
      <rects>
        <_>
          14 0 2 3 -1.</_>
        <_>
          15 0 1 3 2.</_></rects>
      <tilted>0</tilted></_>
    <_>
      <rects>
        <_>
          14 42 21 6 -1.</_>
        <_>
          14 44 21 2 3.</_></rects>
      <tilted>0</tilted></_>
    <_>
      <rects>
        <_>
          14 44 34 4 -1.</_>
        <_>
          14 46 34 2 2.</_></rects>
      <tilted>0</tilted></_>
    <_>
      <rects>
        <_>
          14 45 24 3 -1.</_>
        <_>
          22 45 8 3 3.</_></rects>
      <tilted>0</tilted></_>
    <_>
      <rects>
        <_>
          15 28 18 16 -1.</_>
        <_>
          15 36 18 8 2.</_></rects>
      <tilted>0</tilted></_>
    <_>
      <rects>
        <_>
          16 2 26 4 -1.</_>
        <_>
          16 4 26 2 2.</_></rects>
      <tilted>0</tilted></_>
    <_>
      <rects>
        <_>
          16 22 16 9 -1.</_>
        <_>
          24 22 8 9 2.</_></rects>
      <tilted>0</tilted></_>
    <_>
      <rects>
        <_>
          18 1 3 1 -1.</_>
        <_>
          19 1 1 1 3.</_></rects>
      <tilted>0</tilted></_>
    <_>
      <rects>
        <_>
          19 17 11 14 -1.</_>
        <_>
          19 24 11 7 2.</_></rects>
      <tilted>0</tilted></_>
    <_>
      <rects>
        <_>
          19 23 26 5 -1.</_>
        <_>
          32 23 13 5 2.</_></rects>
      <tilted>0</tilted></_>
    <_>
      <rects>
        <_>
          20 0 15 1 -1.</_>
        <_>
          25 0 5 1 3.</_></rects>
      <tilted>0</tilted></_>
    <_>
      <rects>
        <_>
          20 16 10 20 -1.</_>
        <_>
          20 26 10 10 2.</_></rects>
      <tilted>0</tilted></_>
    <_>
      <rects>
        <_>
          21 25 9 1 -1.</_>
        <_>
          24 25 3 1 3.</_></rects>
      <tilted>0</tilted></_>
    <_>
      <rects>
        <_>
          21 25 6 6 -1.</_>
        <_>
          21 28 6 3 2.</_></rects>
      <tilted>0</tilted></_>
    <_>
      <rects>
        <_>
          21 28 15 15 -1.</_>
        <_>
          21 33 15 5 3.</_></rects>
      <tilted>0</tilted></_>
    <_>
      <rects>
        <_>
          22 49 8 1 -1.</_>
        <_>
          26 49 4 1 2.</_></rects>
      <tilted>0</tilted></_>
    <_>
      <rects>
        <_>
          23 13 18 21 -1.</_>
        <_>
          29 13 6 21 3.</_></rects>
      <tilted>0</tilted></_>
    <_>
      <rects>
        <_>
          23 21 4 9 -1.</_>
        <_>
          23 24 4 3 3.</_></rects>
      <tilted>0</tilted></_>
    <_>
      <rects>
        <_>
          24 21 20 6 -1.</_>
        <_>
          34 21 10 6 2.</_></rects>
      <tilted>0</tilted></_>
    <_>
      <rects>
        <_>
          30 16 20 15 -1.</_>
        <_>
          40 16 10 15 2.</_></rects>
      <tilted>0</tilted></_>
    <_>
      <rects>
        <_>
          32 47 1 3 -1.</_>
        <_>
          32 48 1 1 3.</_></rects>
      <tilted>0</tilted></_>
    <_>
      <rects>
        <_>
          34 48 8 1 -1.</_>
        <_>
          38 48 4 1 2.</_></rects>
      <tilted>0</tilted></_>
    <_>
      <rects>
        <_>
          35 0 12 2 -1.</_>
        <_>
          35 0 6 1 2.</_>
        <_>
          41 1 6 1 2.</_></rects>
      <tilted>0</tilted></_>
    <_>
      <rects>
        <_>
          36 47 11 3 -1.</_>
        <_>
          36 48 11 1 3.</_></rects>
      <tilted>0</tilted></_>
    <_>
      <rects>
        <_>
          38 1 1 2 -1.</_>
        <_>
          38 2 1 1 2.</_></rects>
      <tilted>0</tilted></_>
    <_>
      <rects>
        <_>
          38 45 6 1 -1.</_>
        <_>
          41 45 3 1 2.</_></rects>
      <tilted>0</tilted></_>
    <_>
      <rects>
        <_>
          40 1 4 10 -1.</_>
        <_>
          40 1 2 5 2.</_>
        <_>
          42 6 2 5 2.</_></rects>
      <tilted>0</tilted></_>
    <_>
      <rects>
        <_>
          40 37 10 1 -1.</_>
        <_>
          45 37 5 1 2.</_></rects>
      <tilted>0</tilted></_>
    <_>
      <rects>
        <_>
          40 48 3 2 -1.</_>
        <_>
          41 48 1 2 3.</_></rects>
      <tilted>0</tilted></_>
    <_>
      <rects>
        <_>
          42 48 2 1 -1.</_>
        <_>
          43 48 1 1 2.</_></rects>
      <tilted>0</tilted></_>
    <_>
      <rects>
        <_>
          43 0 2 6 -1.</_>
        <_>
          43 0 1 3 2.</_>
        <_>
          44 3 1 3 2.</_></rects>
      <tilted>0</tilted></_>
    <_>
      <rects>
        <_>
          43 0 6 24 -1.</_>
        <_>
          43 0 3 12 2.</_>
        <_>
          46 12 3 12 2.</_></rects>
      <tilted>0</tilted></_>
    <_>
      <rects>
        <_>
          43 16 6 8 -1.</_>
        <_>
          46 16 3 8 2.</_></rects>
      <tilted>0</tilted></_>
    <_>
      <rects>
        <_>
          43 43 6 3 -1.</_>
        <_>
          43 44 6 1 3.</_></rects>
      <tilted>0</tilted></_>
    <_>
      <rects>
        <_>
          44 13 4 32 -1.</_>
        <_>
          44 13 2 16 2.</_>
        <_>
          46 29 2 16 2.</_></rects>
      <tilted>0</tilted></_>
    <_>
      <rects>
        <_>
          44 43 6 3 -1.</_>
        <_>
          47 43 3 3 2.</_></rects>
      <tilted>0</tilted></_>
    <_>
      <rects>
        <_>
          45 43 2 3 -1.</_>
        <_>
          45 44 2 1 3.</_></rects>
      <tilted>0</tilted></_>
    <_>
      <rects>
        <_>
          46 1 4 34 -1.</_>
        <_>
          46 1 2 17 2.</_>
        <_>
          48 18 2 17 2.</_></rects>
      <tilted>0</tilted></_>
    <_>
      <rects>
        <_>
          46 4 4 28 -1.</_>
        <_>
          46 4 2 14 2.</_>
        <_>
          48 18 2 14 2.</_></rects>
      <tilted>0</tilted></_>
    <_>
      <rects>
        <_>
          47 48 3 2 -1.</_>
        <_>
          48 48 1 2 3.</_></rects>
      <tilted>0</tilted></_>
    <_>
      <rects>
        <_>
          48 1 1 2 -1.</_>
        <_>
          48 2 1 1 2.</_></rects>
      <tilted>0</tilted></_>
    <_>
      <rects>
        <_>
          48 2 1 2 -1.</_>
        <_>
          48 3 1 1 2.</_></rects>
      <tilted>0</tilted></_>
    <_>
      <rects>
        <_>
          48 9 2 22 -1.</_>
        <_>
          48 9 1 11 2.</_>
        <_>
          49 20 1 11 2.</_></rects>
      <tilted>0</tilted></_>
    <_>
      <rects>
        <_>
          48 12 2 18 -1.</_>
        <_>
          48 12 1 9 2.</_>
        <_>
          49 21 1 9 2.</_></rects>
      <tilted>0</tilted></_>
    <_>
      <rects>
        <_>
          48 15 2 4 -1.</_>
        <_>
          49 15 1 4 2.</_></rects>
      <tilted>0</tilted></_>
    <_>
      <rects>
        <_>
          49 12 1 6 -1.</_>
        <_>
          49 14 1 2 3.</_></rects>
      <tilted>0</tilted></_>
    <_>
      <rects>
        <_>
          49 28 1 15 -1.</_>
        <_>
          49 33 1 5 3.</_></rects>
      <tilted>0</tilted></_></features></cascade>
</opencv_storage>
