<?xml version="1.0"?>
<opencv_storage>
<stage3>
  <maxWeakCount>5</maxWeakCount>
  <stageThreshold>-1.1909602880477905e+00</stageThreshold>
  <weakClassifiers>
    <_>
      <internalNodes>
        0 -1 233147 -8.4184203296899796e-04</internalNodes>
      <leafValues>
        5.9420287609100342e-01 -7.4587607383728027e-01</leafValues></_>
    <_>
      <internalNodes>
        0 -1 2924956 4.4782075565308332e-04</internalNodes>
      <leafValues>
        -4.8737499117851257e-01 7.2551989555358887e-01</leafValues></_>
    <_>
      <internalNodes>
        0 -1 3021485 6.8192672915756702e-04</internalNodes>
      <leafValues>
        -5.5071848630905151e-01 5.1781237125396729e-01</leafValues></_>
    <_>
      <internalNodes>
        0 -1 1901177 5.1619065925478935e-03</internalNodes>
      <leafValues>
        2.6467332243919373e-01 -9.4727700948715210e-01</leafValues></_>
    <_>
      <internalNodes>
        0 -1 1631728 -2.5279526598751545e-03</internalNodes>
      <leafValues>
        3.2833588123321533e-01 -6.8379545211791992e-01</leafValues></_></weakClassifiers></stage3>
</opencv_storage>
