<?xml version="1.0"?>
<opencv_storage>
<stage11>
  <maxWeakCount>7</maxWeakCount>
  <stageThreshold>-1.4512867927551270e+00</stageThreshold>
  <weakClassifiers>
    <_>
      <internalNodes>
        0 -1 3024586 3.4534079022705555e-03</internalNodes>
      <leafValues>
        -5.1062154769897461e-01 5.5307263135910034e-01</leafValues></_>
    <_>
      <internalNodes>
        0 -1 2750623 3.9004949030641001e-06</internalNodes>
      <leafValues>
        -5.8984565734863281e-01 2.4806687235832214e-01</leafValues></_>
    <_>
      <internalNodes>
        0 -1 2139309 -1.4428951544687152e-03</internalNodes>
      <leafValues>
        6.5309232473373413e-01 -2.4734769761562347e-01</leafValues></_>
    <_>
      <internalNodes>
        0 -1 4401 -2.5331273674964905e-02</internalNodes>
      <leafValues>
        4.3548938632011414e-01 -3.6839586496353149e-01</leafValues></_>
    <_>
      <internalNodes>
        0 -1 39109 3.7947950204397785e-06</internalNodes>
      <leafValues>
        -5.1297193765640259e-01 3.4794053435325623e-01</leafValues></_>
    <_>
      <internalNodes>
        0 -1 2245161 1.2556267902255058e-03</internalNodes>
      <leafValues>
        -4.5435369014739990e-01 3.8021072745323181e-01</leafValues></_>
    <_>
      <internalNodes>
        0 -1 2972687 2.9504843987524509e-03</internalNodes>
      <leafValues>
        -4.6657535433769226e-01 3.6967512965202332e-01</leafValues></_></weakClassifiers></stage11>
</opencv_storage>
