<?xml version="1.0"?>
<opencv_storage>
<stage2>
  <maxWeakCount>5</maxWeakCount>
  <stageThreshold>-1.6360152959823608e+00</stageThreshold>
  <weakClassifiers>
    <_>
      <internalNodes>
        0 -1 3004116 -1.0620851535350084e-03</internalNodes>
      <leafValues>
        7.1428573131561279e-01 -7.3626375198364258e-01</leafValues></_>
    <_>
      <internalNodes>
        0 -1 154521 -1.3342273887246847e-03</internalNodes>
      <leafValues>
        2.2896942496299744e-01 -8.6661237478256226e-01</leafValues></_>
    <_>
      <internalNodes>
        0 -1 3021485 7.0355733623728156e-04</internalNodes>
      <leafValues>
        -5.2746874094009399e-01 4.1670346260070801e-01</leafValues></_>
    <_>
      <internalNodes>
        0 -1 385165 2.3245884221978486e-04</internalNodes>
      <leafValues>
        2.7260902523994446e-01 -8.1552046537399292e-01</leafValues></_>
    <_>
      <internalNodes>
        0 -1 1971868 -8.9027564972639084e-03</internalNodes>
      <leafValues>
        -9.5703887939453125e-01 2.2172060608863831e-01</leafValues></_></weakClassifiers></stage2>
</opencv_storage>
